FANN_FLO_2.1
num_layers=3
learning_rate=0.700000
connection_rate=1.000000
network_type=0
learning_momentum=0.000000
training_algorithm=2
train_error_function=1
train_stop_function=0
cascade_output_change_fraction=0.010000
quickprop_decay=-0.000100
quickprop_mu=1.750000
rprop_increase_factor=1.200000
rprop_decrease_factor=0.500000
rprop_delta_min=0.000000
rprop_delta_max=50.000000
rprop_delta_zero=0.100000
cascade_output_stagnation_epochs=12
cascade_candidate_change_fraction=0.010000
cascade_candidate_stagnation_epochs=12
cascade_max_out_epochs=150
cascade_max_cand_epochs=150
cascade_num_candidate_groups=2
bit_fail_limit=3.49999999999999980000e-001
cascade_candidate_limit=1.00000000000000000000e+003
cascade_weight_multiplier=4.00000000000000020000e-001
cascade_activation_functions_count=10
cascade_activation_functions=3 5 7 8 10 11 14 15 16 17 
cascade_activation_steepnesses_count=4
cascade_activation_steepnesses=2.50000000000000000000e-001 5.00000000000000000000e-001 7.50000000000000000000e-001 1.00000000000000000000e+000 
layer_sizes=3 5 2 
scale_included=0
neurons (num_inputs, activation_function, activation_steepness)=(0, 0, 0.00000000000000000000e+000) (0, 0, 0.00000000000000000000e+000) (0, 0, 0.00000000000000000000e+000) (3, 4, 5.00000000000000000000e-001) (3, 4, 5.00000000000000000000e-001) (3, 4, 5.00000000000000000000e-001) (3, 4, 5.00000000000000000000e-001) (0, 0, 0.00000000000000000000e+000) (5, 6, 5.00000000000000000000e-001) (0, 6, 0.00000000000000000000e+000) 
connections (connected_to_neuron, weight)=(0, 2.79979029183936530000e+000) (1, -3.94594821672355380000e+000) (2, 4.20765564336721190000e+000) (0, 2.60610913880203570000e+000) (1, 5.15613944837072240000e+000) (2, -4.04432207590716520000e+000) (0, -1.46128195047546650000e+001) (1, 1.27887335660666070000e+001) (2, 5.70337583987234620000e+000) (0, -1.89746557567351080000e+000) (1, 3.07375017649366900000e+000) (2, -3.38291235149413660000e+000) (3, 1.89867368969060200000e-001) (4, -4.19543840716716510000e+000) (5, -1.08874700349742460000e+001) (6, 1.60249933824743990000e+001) (7, 6.43736623072892210000e+000) 
